<?xml version="1.0"?>
<opencv_storage>
<stage13>
  <maxWeakCount>79</maxWeakCount>
  <stageThreshold>-1.4568848609924316e+00</stageThreshold>
  <weakClassifiers>
    <_>
      <internalNodes>
        0 -1 31824 1.1880890280008316e-01</internalNodes>
      <leafValues>
        -5.0357651710510254e-01 3.0721966177225113e-03</leafValues></_>
    <_>
      <internalNodes>
        0 -1 2651 9.5107972621917725e-02</internalNodes>
      <leafValues>
        -1.8317377567291260e-01 2.9302498698234558e-01</leafValues></_>
    <_>
      <internalNodes>
        0 -1 84856 1.7146125435829163e-02</internalNodes>
      <leafValues>
        -1.6361972689628601e-01 2.4647176265716553e-01</leafValues></_>
    <_>
      <internalNodes>
        0 -1 27700 1.5603922307491302e-01</internalNodes>
      <leafValues>
        -1.6457161307334900e-01 1.7818360030651093e-01</leafValues></_>
    <_>
      <internalNodes>
        0 -1 13011 7.2464987169951200e-04</internalNodes>
      <leafValues>
        1.0811252146959305e-01 -2.6609817147254944e-01</leafValues></_>
    <_>
      <internalNodes>
        0 -1 13011 -3.7322711432352662e-04</internalNodes>
      <leafValues>
        -2.0159971714019775e-01 1.4061030745506287e-01</leafValues></_>
    <_>
      <internalNodes>
        0 -1 130407 -7.6907016336917877e-03</internalNodes>
      <leafValues>
        1.9150450825691223e-01 -1.3144889473915100e-01</leafValues></_>
    <_>
      <internalNodes>
        0 -1 126125 1.2306500226259232e-02</internalNodes>
      <leafValues>
        5.6069251149892807e-02 -5.1004236936569214e-01</leafValues></_>
    <_>
      <internalNodes>
        0 -1 12923 1.4731171727180481e-01</internalNodes>
      <leafValues>
        -8.5977666079998016e-02 3.5387405753135681e-01</leafValues></_>
    <_>
      <internalNodes>
        0 -1 98653 -7.1400188608095050e-04</internalNodes>
      <leafValues>
        -5.6054878234863281e-01 2.8672130778431892e-02</leafValues></_>
    <_>
      <internalNodes>
        0 -1 109666 -2.0948513410985470e-03</internalNodes>
      <leafValues>
        2.4924178421497345e-01 -9.3581460416316986e-02</leafValues></_>
    <_>
      <internalNodes>
        0 -1 7501 2.8970830142498016e-02</internalNodes>
      <leafValues>
        -6.1402373015880585e-02 4.1700300574302673e-01</leafValues></_>
    <_>
      <internalNodes>
        0 -1 2269 -2.9428545385599136e-02</internalNodes>
      <leafValues>
        2.9879632592201233e-01 -8.0189257860183716e-02</leafValues></_>
    <_>
      <internalNodes>
        0 -1 159833 -7.5961719267070293e-04</internalNodes>
      <leafValues>
        -2.8708070516586304e-01 8.1848800182342529e-02</leafValues></_>
    <_>
      <internalNodes>
        0 -1 159833 6.1581050977110863e-04</internalNodes>
      <leafValues>
        7.5451992452144623e-02 -2.9349011182785034e-01</leafValues></_>
    <_>
      <internalNodes>
        0 -1 110014 -1.7528582364320755e-02</internalNodes>
      <leafValues>
        1.7781616747379303e-01 -1.2267079949378967e-01</leafValues></_>
    <_>
      <internalNodes>
        0 -1 136687 2.3931874893605709e-03</internalNodes>
      <leafValues>
        -8.2764185965061188e-02 2.5441291928291321e-01</leafValues></_>
    <_>
      <internalNodes>
        0 -1 107146 -1.2857043743133545e-01</internalNodes>
      <leafValues>
        -5.1601433753967285e-01 4.0354538708925247e-02</leafValues></_>
    <_>
      <internalNodes>
        0 -1 122138 2.5320142507553101e-02</internalNodes>
      <leafValues>
        -7.7500745654106140e-02 2.8715437650680542e-01</leafValues></_>
    <_>
      <internalNodes>
        0 -1 72908 3.9076961576938629e-02</internalNodes>
      <leafValues>
        -8.7330199778079987e-02 2.5041228532791138e-01</leafValues></_>
    <_>
      <internalNodes>
        0 -1 114416 -7.1205146377906203e-04</internalNodes>
      <leafValues>
        -4.9123269319534302e-01 4.4881016016006470e-02</leafValues></_>
    <_>
      <internalNodes>
        0 -1 24710 -3.1663279980421066e-02</internalNodes>
      <leafValues>
        -4.2119219899177551e-01 4.4621676206588745e-02</leafValues></_>
    <_>
      <internalNodes>
        0 -1 39027 -6.6120261326432228e-03</internalNodes>
      <leafValues>
        1.8511469662189484e-01 -1.0727224498987198e-01</leafValues></_>
    <_>
      <internalNodes>
        0 -1 98656 -7.1354815736413002e-04</internalNodes>
      <leafValues>
        -4.6820092201232910e-01 3.7111710757017136e-02</leafValues></_>
    <_>
      <internalNodes>
        0 -1 148116 1.1960992123931646e-03</internalNodes>
      <leafValues>
        -5.6430242955684662e-02 3.5825774073600769e-01</leafValues></_>
    <_>
      <internalNodes>
        0 -1 151579 2.0315567962825298e-04</internalNodes>
      <leafValues>
        -8.9514337480068207e-02 2.1137388050556183e-01</leafValues></_>
    <_>
      <internalNodes>
        0 -1 143068 1.1632251553237438e-03</internalNodes>
      <leafValues>
        9.0900242328643799e-02 -2.2109511494636536e-01</leafValues></_>
    <_>
      <internalNodes>
        0 -1 11483 -2.5429487228393555e-01</internalNodes>
      <leafValues>
        -6.3188195228576660e-01 2.8810482472181320e-02</leafValues></_>
    <_>
      <internalNodes>
        0 -1 85332 -2.4560808669775724e-03</internalNodes>
      <leafValues>
        2.0208093523979187e-01 -9.8886989057064056e-02</leafValues></_>
    <_>
      <internalNodes>
        0 -1 109226 -6.4905975013971329e-03</internalNodes>
      <leafValues>
        2.2211940586566925e-01 -9.2460937798023224e-02</leafValues></_>
    <_>
      <internalNodes>
        0 -1 128992 -1.9602351821959019e-03</internalNodes>
      <leafValues>
        1.5878285467624664e-01 -1.2297642976045609e-01</leafValues></_>
    <_>
      <internalNodes>
        0 -1 60437 4.8674733261577785e-04</internalNodes>
      <leafValues>
        6.8653017282485962e-02 -2.6466941833496094e-01</leafValues></_>
    <_>
      <internalNodes>
        0 -1 117806 3.2389115542173386e-02</internalNodes>
      <leafValues>
        -8.7755069136619568e-02 2.2346925735473633e-01</leafValues></_>
    <_>
      <internalNodes>
        0 -1 65861 -9.0492740273475647e-02</internalNodes>
      <leafValues>
        -5.6520175933837891e-01 3.5139333456754684e-02</leafValues></_>
    <_>
      <internalNodes>
        0 -1 143340 -2.3327538743615150e-02</internalNodes>
      <leafValues>
        -5.0342291593551636e-01 3.0485337600111961e-02</leafValues></_>
    <_>
      <internalNodes>
        0 -1 36253 3.2085287384688854e-03</internalNodes>
      <leafValues>
        -4.2651247233152390e-02 4.4185045361518860e-01</leafValues></_>
    <_>
      <internalNodes>
        0 -1 135045 -7.1985210524871945e-04</internalNodes>
      <leafValues>
        -2.6169577240943909e-01 6.7218400537967682e-02</leafValues></_>
    <_>
      <internalNodes>
        0 -1 151579 -1.9827918731607497e-04</internalNodes>
      <leafValues>
        1.9381406903266907e-01 -8.8734991848468781e-02</leafValues></_>
    <_>
      <internalNodes>
        0 -1 162097 -2.1293158351909369e-04</internalNodes>
      <leafValues>
        -1.8153755366802216e-01 9.2983223497867584e-02</leafValues></_>
    <_>
      <internalNodes>
        0 -1 17315 1.2465870939195156e-02</internalNodes>
      <leafValues>
        3.6746110767126083e-02 -4.3158653378486633e-01</leafValues></_>
    <_>
      <internalNodes>
        0 -1 79616 -2.3229948055814020e-05</internalNodes>
      <leafValues>
        7.2042398154735565e-02 -2.0846314728260040e-01</leafValues></_>
    <_>
      <internalNodes>
        0 -1 162091 3.9980755536817014e-04</internalNodes>
      <leafValues>
        8.4312975406646729e-02 -1.9929410517215729e-01</leafValues></_>
    <_>
      <internalNodes>
        0 -1 74519 1.7689801752567291e-03</internalNodes>
      <leafValues>
        -6.2460578978061676e-02 2.5071239471435547e-01</leafValues></_>
    <_>
      <internalNodes>
        0 -1 16436 3.9117019623517990e-03</internalNodes>
      <leafValues>
        -6.2682516872882843e-02 2.3998084664344788e-01</leafValues></_>
    <_>
      <internalNodes>
        0 -1 8151 6.3749862601980567e-04</internalNodes>
      <leafValues>
        9.9051006138324738e-02 -1.7778784036636353e-01</leafValues></_>
    <_>
      <internalNodes>
        0 -1 71751 -8.9496392756700516e-03</internalNodes>
      <leafValues>
        -2.4517539143562317e-01 6.8328440189361572e-02</leafValues></_>
    <_>
      <internalNodes>
        0 -1 58650 1.1151723563671112e-02</internalNodes>
      <leafValues>
        1.0926061123609543e-01 -1.6567151248455048e-01</leafValues></_>
    <_>
      <internalNodes>
        0 -1 2228 9.7573529928922653e-03</internalNodes>
      <leafValues>
        -7.0871584117412567e-02 2.4371460080146790e-01</leafValues></_>
    <_>
      <internalNodes>
        0 -1 101721 -3.6445271689444780e-04</internalNodes>
      <leafValues>
        1.4161930978298187e-01 -1.1213307827711105e-01</leafValues></_>
    <_>
      <internalNodes>
        0 -1 118275 -1.1281799525022507e-03</internalNodes>
      <leafValues>
        1.7433746159076691e-01 -9.3189135193824768e-02</leafValues></_>
    <_>
      <internalNodes>
        0 -1 66896 -1.1053789407014847e-02</internalNodes>
      <leafValues>
        -2.4822361767292023e-01 6.3961669802665710e-02</leafValues></_>
    <_>
      <internalNodes>
        0 -1 108022 2.4317330680787563e-03</internalNodes>
      <leafValues>
        3.8332097232341766e-02 -4.1457340121269226e-01</leafValues></_>
    <_>
      <internalNodes>
        0 -1 127463 1.5805135481059551e-03</internalNodes>
      <leafValues>
        -4.0627993643283844e-02 4.2493227124214172e-01</leafValues></_>
    <_>
      <internalNodes>
        0 -1 125478 -3.3169873058795929e-03</internalNodes>
      <leafValues>
        1.6840226948261261e-01 -9.8517857491970062e-02</leafValues></_>
    <_>
      <internalNodes>
        0 -1 11153 -3.3109102398157120e-02</internalNodes>
      <leafValues>
        2.7299365401268005e-01 -5.7538878172636032e-02</leafValues></_>
    <_>
      <internalNodes>
        0 -1 11186 2.5518007576465607e-02</internalNodes>
      <leafValues>
        -5.9580516070127487e-02 2.9449582099914551e-01</leafValues></_>
    <_>
      <internalNodes>
        0 -1 16297 4.3288944289088249e-04</internalNodes>
      <leafValues>
        6.6404670476913452e-02 -2.6662808656692505e-01</leafValues></_>
    <_>
      <internalNodes>
        0 -1 37918 2.2680815309286118e-03</internalNodes>
      <leafValues>
        4.5402612537145615e-02 -3.5799291729927063e-01</leafValues></_>
    <_>
      <internalNodes>
        0 -1 60371 -6.4640527125447989e-04</internalNodes>
      <leafValues>
        -1.8792451918125153e-01 8.5037983953952789e-02</leafValues></_>
    <_>
      <internalNodes>
        0 -1 128503 -2.4839212000370026e-01</internalNodes>
      <leafValues>
        -5.6103020906448364e-01 2.8482664376497269e-02</leafValues></_>
    <_>
      <internalNodes>
        0 -1 119044 -1.8704727292060852e-02</internalNodes>
      <leafValues>
        -2.4015495181083679e-01 6.7743711173534393e-02</leafValues></_>
    <_>
      <internalNodes>
        0 -1 48875 -1.1460013687610626e-02</internalNodes>
      <leafValues>
        3.1903186440467834e-01 -5.2721407264471054e-02</leafValues></_>
    <_>
      <internalNodes>
        0 -1 79161 -5.4759519116487354e-05</internalNodes>
      <leafValues>
        9.5490291714668274e-02 -1.8380095064640045e-01</leafValues></_>
    <_>
      <internalNodes>
        0 -1 38170 4.0519526228308678e-03</internalNodes>
      <leafValues>
        -1.5958757698535919e-01 9.9175453186035156e-02</leafValues></_>
    <_>
      <internalNodes>
        0 -1 131153 -2.7486882172524929e-03</internalNodes>
      <leafValues>
        1.5468610823154449e-01 -1.0271722078323364e-01</leafValues></_>
    <_>
      <internalNodes>
        0 -1 121517 -2.4077601730823517e-02</internalNodes>
      <leafValues>
        5.2015012502670288e-01 -3.4646417945623398e-02</leafValues></_>
    <_>
      <internalNodes>
        0 -1 145243 3.0964091420173645e-02</internalNodes>
      <leafValues>
        -5.9496842324733734e-02 2.5720983743667603e-01</leafValues></_>
    <_>
      <internalNodes>
        0 -1 161470 -6.4012166112661362e-03</internalNodes>
      <leafValues>
        -6.0339480638504028e-01 2.8683474287390709e-02</leafValues></_>
    <_>
      <internalNodes>
        0 -1 133100 -1.7254080157727003e-03</internalNodes>
      <leafValues>
        1.9638578593730927e-01 -8.5480824112892151e-02</leafValues></_>
    <_>
      <internalNodes>
        0 -1 15310 2.2242355346679688e-01</internalNodes>
      <leafValues>
        -9.7570985555648804e-02 1.7473416030406952e-01</leafValues></_>
    <_>
      <internalNodes>
        0 -1 8348 4.5563898980617523e-02</internalNodes>
      <leafValues>
        4.0860597044229507e-02 -4.8715612292289734e-01</leafValues></_>
    <_>
      <internalNodes>
        0 -1 101130 3.0616185069084167e-01</internalNodes>
      <leafValues>
        2.0152337849140167e-02 -6.8748348951339722e-01</leafValues></_>
    <_>
      <internalNodes>
        0 -1 88282 6.8955426104366779e-04</internalNodes>
      <leafValues>
        6.6292285919189453e-02 -2.2485841810703278e-01</leafValues></_>
    <_>
      <internalNodes>
        0 -1 108588 -7.1976956678554416e-04</internalNodes>
      <leafValues>
        -2.9149559140205383e-01 5.3250603377819061e-02</leafValues></_>
    <_>
      <internalNodes>
        0 -1 121755 -2.0872640609741211e-01</internalNodes>
      <leafValues>
        -5.2960985898971558e-01 2.6352588087320328e-02</leafValues></_>
    <_>
      <internalNodes>
        0 -1 38061 -6.8619125522673130e-04</internalNodes>
      <leafValues>
        -2.7056261897087097e-01 5.1874890923500061e-02</leafValues></_>
    <_>
      <internalNodes>
        0 -1 109288 3.0976902693510056e-02</internalNodes>
      <leafValues>
        -6.6719993948936462e-02 2.4998565018177032e-01</leafValues></_>
    <_>
      <internalNodes>
        0 -1 25805 4.7195120714604855e-04</internalNodes>
      <leafValues>
        5.5079542100429535e-02 -2.9039475321769714e-01</leafValues></_>
    <_>
      <internalNodes>
        0 -1 76821 1.2386832386255264e-03</internalNodes>
      <leafValues>
        -6.0571279376745224e-02 2.8116816282272339e-01</leafValues></_></weakClassifiers></stage13>
</opencv_storage>
