<?xml version="1.0"?>
<opencv_storage>
<stage18>
  <maxWeakCount>100</maxWeakCount>
  <stageThreshold>-1.4266676902770996e+00</stageThreshold>
  <weakClassifiers>
    <_>
      <internalNodes>
        0 -1 91088 2.3308724164962769e-02</internalNodes>
      <leafValues>
        -4.1184210777282715e-01 -6.2711864709854126e-02</leafValues></_>
    <_>
      <internalNodes>
        0 -1 71401 8.8668115437030792e-02</internalNodes>
      <leafValues>
        -1.9698069989681244e-01 1.5610472857952118e-01</leafValues></_>
    <_>
      <internalNodes>
        0 -1 4599 4.4611877202987671e-01</internalNodes>
      <leafValues>
        -7.5280055403709412e-02 3.1176707148551941e-01</leafValues></_>
    <_>
      <internalNodes>
        0 -1 40826 -1.4705513603985310e-02</internalNodes>
      <leafValues>
        2.0187306404113770e-01 -9.2291884124279022e-02</leafValues></_>
    <_>
      <internalNodes>
        0 -1 112595 -4.1460292413830757e-03</internalNodes>
      <leafValues>
        8.3844788372516632e-02 -1.9237868487834930e-01</leafValues></_>
    <_>
      <internalNodes>
        0 -1 81 6.7943061003461480e-04</internalNodes>
      <leafValues>
        7.2307653725147247e-02 -2.6321509480476379e-01</leafValues></_>
    <_>
      <internalNodes>
        0 -1 99063 5.7919733226299286e-03</internalNodes>
      <leafValues>
        -9.6477620303630829e-02 1.7206235229969025e-01</leafValues></_>
    <_>
      <internalNodes>
        0 -1 90674 4.3750926852226257e-03</internalNodes>
      <leafValues>
        -1.4829301834106445e-01 1.0946599394083023e-01</leafValues></_>
    <_>
      <internalNodes>
        0 -1 88272 2.6737810112535954e-03</internalNodes>
      <leafValues>
        8.3179496228694916e-02 -1.9450399279594421e-01</leafValues></_>
    <_>
      <internalNodes>
        0 -1 89825 -5.7400087825953960e-04</internalNodes>
      <leafValues>
        -4.2154803872108459e-01 2.9842060059309006e-02</leafValues></_>
    <_>
      <internalNodes>
        0 -1 159299 -3.3799866214394569e-03</internalNodes>
      <leafValues>
        2.4584192037582397e-01 -6.7424952983856201e-02</leafValues></_>
    <_>
      <internalNodes>
        0 -1 2347 -7.3890564963221550e-03</internalNodes>
      <leafValues>
        3.4504815936088562e-01 -2.8251761570572853e-02</leafValues></_>
    <_>
      <internalNodes>
        0 -1 86819 -6.8576901685446501e-04</internalNodes>
      <leafValues>
        1.6891425848007202e-01 -7.2406366467475891e-02</leafValues></_>
    <_>
      <internalNodes>
        0 -1 96088 -9.8593125585466623e-04</internalNodes>
      <leafValues>
        2.2642013430595398e-01 -5.7955078780651093e-02</leafValues></_>
    <_>
      <internalNodes>
        0 -1 75277 3.6438971757888794e-02</internalNodes>
      <leafValues>
        2.2769652307033539e-02 -5.1867669820785522e-01</leafValues></_>
    <_>
      <internalNodes>
        0 -1 128634 -3.3077148254960775e-03</internalNodes>
      <leafValues>
        9.8943956196308136e-02 -1.4529226720333099e-01</leafValues></_>
    <_>
      <internalNodes>
        0 -1 92729 6.0201663523912430e-02</internalNodes>
      <leafValues>
        2.2487418726086617e-02 -4.9704834818840027e-01</leafValues></_>
    <_>
      <internalNodes>
        0 -1 13309 -3.6525895120576024e-04</internalNodes>
      <leafValues>
        -1.6424219310283661e-01 7.1322530508041382e-02</leafValues></_>
    <_>
      <internalNodes>
        0 -1 13360 1.7999691190198064e-03</internalNodes>
      <leafValues>
        5.5949416011571884e-02 -2.4674075841903687e-01</leafValues></_>
    <_>
      <internalNodes>
        0 -1 150941 -8.4221106953918934e-04</internalNodes>
      <leafValues>
        1.7017896473407745e-01 -7.3042817413806915e-02</leafValues></_>
    <_>
      <internalNodes>
        0 -1 132600 -4.3787406757473946e-03</internalNodes>
      <leafValues>
        -2.0844681560993195e-01 6.0584262013435364e-02</leafValues></_>
    <_>
      <internalNodes>
        0 -1 151257 -3.0740362126380205e-04</internalNodes>
      <leafValues>
        1.8313029408454895e-01 -6.7517101764678955e-02</leafValues></_>
    <_>
      <internalNodes>
        0 -1 4064 1.6570564359426498e-02</internalNodes>
      <leafValues>
        3.2885517925024033e-02 -3.5231512784957886e-01</leafValues></_>
    <_>
      <internalNodes>
        0 -1 26975 7.7252471819519997e-03</internalNodes>
      <leafValues>
        -8.0284528434276581e-02 1.5124990046024323e-01</leafValues></_>
    <_>
      <internalNodes>
        0 -1 148029 -1.1453083716332912e-03</internalNodes>
      <leafValues>
        3.0237075686454773e-01 -3.8207050412893295e-02</leafValues></_>
    <_>
      <internalNodes>
        0 -1 24983 -3.9764553308486938e-02</internalNodes>
      <leafValues>
        -4.5678448677062988e-01 2.7360262349247932e-02</leafValues></_>
    <_>
      <internalNodes>
        0 -1 3061 2.3170333355665207e-02</internalNodes>
      <leafValues>
        1.7828946933150291e-02 -6.0274493694305420e-01</leafValues></_>
    <_>
      <internalNodes>
        0 -1 85789 5.3487205877900124e-03</internalNodes>
      <leafValues>
        -9.0127058327198029e-02 1.4447079598903656e-01</leafValues></_>
    <_>
      <internalNodes>
        0 -1 148030 -3.9182687760330737e-04</internalNodes>
      <leafValues>
        1.8190094828605652e-01 -6.2114391475915909e-02</leafValues></_>
    <_>
      <internalNodes>
        0 -1 129023 -5.9053639415651560e-04</internalNodes>
      <leafValues>
        -2.1709388494491577e-01 5.1858153194189072e-02</leafValues></_>
    <_>
      <internalNodes>
        0 -1 66901 -7.2816103696823120e-02</internalNodes>
      <leafValues>
        -7.8049641847610474e-01 1.3995677232742310e-02</leafValues></_>
    <_>
      <internalNodes>
        0 -1 79873 -2.1525694057345390e-02</internalNodes>
      <leafValues>
        -6.2535041570663452e-01 1.5278572216629982e-02</leafValues></_>
    <_>
      <internalNodes>
        0 -1 42228 3.2255783677101135e-02</internalNodes>
      <leafValues>
        1.1154405772686005e-02 -8.9019644260406494e-01</leafValues></_>
    <_>
      <internalNodes>
        0 -1 130873 -8.3229161798954010e-02</internalNodes>
      <leafValues>
        -7.4613094329833984e-01 1.1264600791037083e-02</leafValues></_>
    <_>
      <internalNodes>
        0 -1 143072 -5.1561077125370502e-03</internalNodes>
      <leafValues>
        -1.8605063855648041e-01 6.0517169535160065e-02</leafValues></_>
    <_>
      <internalNodes>
        0 -1 10033 1.2238053604960442e-02</internalNodes>
      <leafValues>
        -3.2258972525596619e-02 3.5663449764251709e-01</leafValues></_>
    <_>
      <internalNodes>
        0 -1 11854 7.5901262462139130e-03</internalNodes>
      <leafValues>
        4.2565893381834030e-02 -2.7047428488731384e-01</leafValues></_>
    <_>
      <internalNodes>
        0 -1 161718 -2.2406884818337858e-04</internalNodes>
      <leafValues>
        -1.1043046414852142e-01 1.0145135223865509e-01</leafValues></_>
    <_>
      <internalNodes>
        0 -1 161878 6.6989229526370764e-04</internalNodes>
      <leafValues>
        6.8861991167068481e-02 -2.3467053472995758e-01</leafValues></_>
    <_>
      <internalNodes>
        0 -1 97100 -4.4101901585236192e-04</internalNodes>
      <leafValues>
        1.8209242820739746e-01 -6.4955346286296844e-02</leafValues></_>
    <_>
      <internalNodes>
        0 -1 143045 9.2584703816100955e-04</internalNodes>
      <leafValues>
        6.9326490163803101e-02 -1.7146639525890350e-01</leafValues></_>
    <_>
      <internalNodes>
        0 -1 1336 -6.8091787397861481e-03</internalNodes>
      <leafValues>
        1.4077535271644592e-01 -8.3226941525936127e-02</leafValues></_>
    <_>
      <internalNodes>
        0 -1 141159 1.1179937049746513e-02</internalNodes>
      <leafValues>
        -6.9601990282535553e-02 1.6077484190464020e-01</leafValues></_>
    <_>
      <internalNodes>
        0 -1 158195 -2.7098804712295532e-02</internalNodes>
      <leafValues>
        3.1298270821571350e-01 -4.1350089013576508e-02</leafValues></_>
    <_>
      <internalNodes>
        0 -1 145267 -2.5663930177688599e-01</internalNodes>
      <leafValues>
        -5.1517933607101440e-01 2.5116756558418274e-02</leafValues></_>
    <_>
      <internalNodes>
        0 -1 156592 -7.5286170467734337e-03</internalNodes>
      <leafValues>
        2.4788594245910645e-01 -4.8155132681131363e-02</leafValues></_>
    <_>
      <internalNodes>
        0 -1 161403 3.0347920255735517e-04</internalNodes>
      <leafValues>
        6.3238427042961121e-02 -1.7981290817260742e-01</leafValues></_>
    <_>
      <internalNodes>
        0 -1 161272 -3.7477628211490810e-04</internalNodes>
      <leafValues>
        -1.5782050788402557e-01 9.3723140656948090e-02</leafValues></_>
    <_>
      <internalNodes>
        0 -1 94297 -7.5983428396284580e-03</internalNodes>
      <leafValues>
        1.8191494047641754e-01 -6.7655965685844421e-02</leafValues></_>
    <_>
      <internalNodes>
        0 -1 117943 -5.4612443782389164e-03</internalNodes>
      <leafValues>
        1.5260046720504761e-01 -8.9578017592430115e-02</leafValues></_>
    <_>
      <internalNodes>
        0 -1 128229 -1.0782893747091293e-02</internalNodes>
      <leafValues>
        2.0882828533649445e-01 -6.6488035023212433e-02</leafValues></_>
    <_>
      <internalNodes>
        0 -1 123962 1.2813237262889743e-03</internalNodes>
      <leafValues>
        -9.2909947037696838e-02 1.1465847492218018e-01</leafValues></_>
    <_>
      <internalNodes>
        0 -1 101237 1.8246263265609741e-02</internalNodes>
      <leafValues>
        -6.1758667230606079e-02 1.7791798710823059e-01</leafValues></_>
    <_>
      <internalNodes>
        0 -1 100208 9.3557313084602356e-02</internalNodes>
      <leafValues>
        1.4197551645338535e-02 -6.9930040836334229e-01</leafValues></_>
    <_>
      <internalNodes>
        0 -1 55345 4.2005848139524460e-02</internalNodes>
      <leafValues>
        -4.5917790383100510e-02 3.0748528242111206e-01</leafValues></_>
    <_>
      <internalNodes>
        0 -1 104743 -2.8250775358173996e-05</internalNodes>
      <leafValues>
        1.1886274069547653e-01 -1.0239920020103455e-01</leafValues></_>
    <_>
      <internalNodes>
        0 -1 10492 -2.1665435284376144e-02</internalNodes>
      <leafValues>
        -2.0936416089534760e-01 5.3884893655776978e-02</leafValues></_>
    <_>
      <internalNodes>
        0 -1 58879 -1.2091589160263538e-03</internalNodes>
      <leafValues>
        3.2142242789268494e-01 -3.4655231982469559e-02</leafValues></_>
    <_>
      <internalNodes>
        0 -1 16437 -2.9188359621912241e-03</internalNodes>
      <leafValues>
        -3.8357716798782349e-01 2.8774026781320572e-02</leafValues></_>
    <_>
      <internalNodes>
        0 -1 153219 6.7610982805490494e-03</internalNodes>
      <leafValues>
        -7.7929928898811340e-02 1.4659897983074188e-01</leafValues></_>
    <_>
      <internalNodes>
        0 -1 65861 4.9293711781501770e-02</internalNodes>
      <leafValues>
        4.4202197343111038e-02 -2.4925489723682404e-01</leafValues></_>
    <_>
      <internalNodes>
        0 -1 12675 7.3362290859222412e-02</internalNodes>
      <leafValues>
        -4.8323545604944229e-02 2.4643440544605255e-01</leafValues></_>
    <_>
      <internalNodes>
        0 -1 118980 -1.3479639310389757e-03</internalNodes>
      <leafValues>
        2.0869925618171692e-01 -5.2233453840017319e-02</leafValues></_>
    <_>
      <internalNodes>
        0 -1 104985 -4.8050347715616226e-02</internalNodes>
      <leafValues>
        -4.4473996758460999e-01 2.3727856576442719e-02</leafValues></_>
    <_>
      <internalNodes>
        0 -1 151290 1.2180726043879986e-03</internalNodes>
      <leafValues>
        -5.8793928474187851e-02 1.9265586137771606e-01</leafValues></_>
    <_>
      <internalNodes>
        0 -1 99326 -8.8429398601874709e-04</internalNodes>
      <leafValues>
        -3.7055560946464539e-01 2.7989443391561508e-02</leafValues></_>
    <_>
      <internalNodes>
        0 -1 25967 -1.3917594333179295e-04</internalNodes>
      <leafValues>
        -1.2274271249771118e-01 7.9645484685897827e-02</leafValues></_>
    <_>
      <internalNodes>
        0 -1 25967 1.4460779493674636e-04</internalNodes>
      <leafValues>
        8.9247643947601318e-02 -1.5713748335838318e-01</leafValues></_>
    <_>
      <internalNodes>
        0 -1 12136 -2.9788263142108917e-02</internalNodes>
      <leafValues>
        1.1650556325912476e-01 -8.4039732813835144e-02</leafValues></_>
    <_>
      <internalNodes>
        0 -1 106668 -4.7885987907648087e-02</internalNodes>
      <leafValues>
        -5.3113579750061035e-01 2.0071694627404213e-02</leafValues></_>
    <_>
      <internalNodes>
        0 -1 10808 -8.6717016529291868e-04</internalNodes>
      <leafValues>
        1.4591324329376221e-01 -6.9725126028060913e-02</leafValues></_>
    <_>
      <internalNodes>
        0 -1 91703 5.3218066692352295e-02</internalNodes>
      <leafValues>
        -2.0112464204430580e-02 4.9729776382446289e-01</leafValues></_>
    <_>
      <internalNodes>
        0 -1 101400 2.7340468950569630e-03</internalNodes>
      <leafValues>
        3.8966257125139236e-02 -3.0801340937614441e-01</leafValues></_>
    <_>
      <internalNodes>
        0 -1 134168 -1.4495232608169317e-03</internalNodes>
      <leafValues>
        -2.4101158976554871e-01 3.9921291172504425e-02</leafValues></_>
    <_>
      <internalNodes>
        0 -1 71464 4.9143261276185513e-04</internalNodes>
      <leafValues>
        1.4021164178848267e-01 -7.8269772231578827e-02</leafValues></_>
    <_>
      <internalNodes>
        0 -1 23566 4.4128067791461945e-02</internalNodes>
      <leafValues>
        2.1613081917166710e-02 -4.5739659667015076e-01</leafValues></_>
    <_>
      <internalNodes>
        0 -1 58193 1.2122490443289280e-03</internalNodes>
      <leafValues>
        -6.1911132186651230e-02 1.6438432037830353e-01</leafValues></_>
    <_>
      <internalNodes>
        0 -1 110408 4.8619300127029419e-02</internalNodes>
      <leafValues>
        -4.3409265577793121e-02 2.1475926041603088e-01</leafValues></_>
    <_>
      <internalNodes>
        0 -1 128498 -3.7027463316917419e-02</internalNodes>
      <leafValues>
        -2.1458099782466888e-01 5.0758384168148041e-02</leafValues></_>
    <_>
      <internalNodes>
        0 -1 50263 8.0010099336504936e-03</internalNodes>
      <leafValues>
        -1.1634340882301331e-01 9.4756998121738434e-02</leafValues></_>
    <_>
      <internalNodes>
        0 -1 90230 -5.6285862810909748e-03</internalNodes>
      <leafValues>
        2.4416734278202057e-01 -4.5266795903444290e-02</leafValues></_>
    <_>
      <internalNodes>
        0 -1 99432 8.2738101482391357e-02</internalNodes>
      <leafValues>
        1.4374286867678165e-02 -7.5038737058639526e-01</leafValues></_>
    <_>
      <internalNodes>
        0 -1 131511 8.5431709885597229e-02</internalNodes>
      <leafValues>
        -7.7342309057712555e-02 1.3159590959548950e-01</leafValues></_>
    <_>
      <internalNodes>
        0 -1 114493 -1.9492748833727092e-04</internalNodes>
      <leafValues>
        -2.0743246376514435e-01 4.7482971101999283e-02</leafValues></_>
    <_>
      <internalNodes>
        0 -1 81350 -7.8239571303129196e-03</internalNodes>
      <leafValues>
        2.5426939129829407e-01 -4.0474742650985718e-02</leafValues></_>
    <_>
      <internalNodes>
        0 -1 129378 8.4622181020677090e-04</internalNodes>
      <leafValues>
        2.5491651147603989e-02 -4.1505756974220276e-01</leafValues></_>
    <_>
      <internalNodes>
        0 -1 17315 -1.0567449033260345e-02</internalNodes>
      <leafValues>
        -2.9031050205230713e-01 3.1998712569475174e-02</leafValues></_>
    <_>
      <internalNodes>
        0 -1 70662 -4.2951788054779172e-04</internalNodes>
      <leafValues>
        -1.1054652184247971e-01 8.8338054716587067e-02</leafValues></_>
    <_>
      <internalNodes>
        0 -1 80707 8.7944522965699434e-04</internalNodes>
      <leafValues>
        4.6381648629903793e-02 -2.3922261595726013e-01</leafValues></_>
    <_>
      <internalNodes>
        0 -1 131199 1.7377287149429321e-01</internalNodes>
      <leafValues>
        1.3195529580116272e-02 -7.0052438974380493e-01</leafValues></_>
    <_>
      <internalNodes>
        0 -1 114363 3.0420569237321615e-03</internalNodes>
      <leafValues>
        -2.5390805676579475e-02 4.1740542650222778e-01</leafValues></_>
    <_>
      <internalNodes>
        0 -1 2141 8.0355341196991503e-05</internalNodes>
      <leafValues>
        8.8892966508865356e-02 -1.0968954861164093e-01</leafValues></_>
    <_>
      <internalNodes>
        0 -1 93425 -1.1158357374370098e-03</internalNodes>
      <leafValues>
        8.0385282635688782e-02 -1.1619344353675842e-01</leafValues></_>
    <_>
      <internalNodes>
        0 -1 84272 2.0154908299446106e-02</internalNodes>
      <leafValues>
        -4.1340470314025879e-02 2.9148498177528381e-01</leafValues></_>
    <_>
      <internalNodes>
        0 -1 45349 -1.4605853706598282e-02</internalNodes>
      <leafValues>
        1.8006622791290283e-01 -6.0909591615200043e-02</leafValues></_>
    <_>
      <internalNodes>
        0 -1 67190 -9.8398149013519287e-02</internalNodes>
      <leafValues>
        -8.7140643596649170e-01 1.1405919678509235e-02</leafValues></_>
    <_>
      <internalNodes>
        0 -1 154247 -5.1577039994299412e-04</internalNodes>
      <leafValues>
        1.8434298038482666e-01 -5.5430121719837189e-02</leafValues></_>
    <_>
      <internalNodes>
        0 -1 151872 4.4347287621349096e-04</internalNodes>
      <leafValues>
        5.6804746389389038e-02 -1.7970423400402069e-01</leafValues></_>
    <_>
      <internalNodes>
        0 -1 106735 5.8022132143378258e-03</internalNodes>
      <leafValues>
        3.7938892841339111e-02 -2.7358922362327576e-01</leafValues></_>
    <_>
      <internalNodes>
        0 -1 155142 -1.7504339339211583e-03</internalNodes>
      <leafValues>
        2.7089688181877136e-01 -4.0471810847520828e-02</leafValues></_></weakClassifiers></stage18>
</opencv_storage>
