<?xml version="1.0"?>
<opencv_storage>
<stage0>
  <maxWeakCount>6</maxWeakCount>
  <stageThreshold>-1.1870108842849731e+00</stageThreshold>
  <weakClassifiers>
    <_>
      <internalNodes>
        0 -1 31841 1.5157097578048706e-01</internalNodes>
      <leafValues>
        -6.5744900703430176e-01 7.3638719320297241e-01</leafValues></_>
    <_>
      <internalNodes>
        0 -1 91047 -3.1919024884700775e-02</internalNodes>
      <leafValues>
        7.9844039678573608e-01 -4.7137826681137085e-01</leafValues></_>
    <_>
      <internalNodes>
        0 -1 10935 2.2650235332548618e-03</internalNodes>
      <leafValues>
        7.4259501695632935e-01 -2.0759165287017822e-01</leafValues></_>
    <_>
      <internalNodes>
        0 -1 66024 2.5421254336833954e-02</internalNodes>
      <leafValues>
        -2.6157146692276001e-01 6.6668576002120972e-01</leafValues></_>
    <_>
      <internalNodes>
        0 -1 162101 7.9721258953213692e-04</internalNodes>
      <leafValues>
        2.5174024701118469e-01 -7.5091063976287842e-01</leafValues></_>
    <_>
      <internalNodes>
        0 -1 162101 -7.4758788105100393e-04</internalNodes>
      <leafValues>
        -7.6901799440383911e-01 2.7849739789962769e-01</leafValues></_></weakClassifiers></stage0>
</opencv_storage>
