<?xml version="1.0"?>
<opencv_storage>
<stage10>
  <maxWeakCount>89</maxWeakCount>
  <stageThreshold>-1.3647706508636475e+00</stageThreshold>
  <weakClassifiers>
    <_>
      <internalNodes>
        0 -1 7825 4.2693668603897095e-01</internalNodes>
      <leafValues>
        -3.1277173757553101e-01 2.7297297120094299e-01</leafValues></_>
    <_>
      <internalNodes>
        0 -1 51388 -2.2020876407623291e-02</internalNodes>
      <leafValues>
        3.0158463120460510e-01 -1.0379910469055176e-01</leafValues></_>
    <_>
      <internalNodes>
        0 -1 1096 5.4290242493152618e-02</internalNodes>
      <leafValues>
        -1.7596870660781860e-01 1.5091595053672791e-01</leafValues></_>
    <_>
      <internalNodes>
        0 -1 116634 4.1680164635181427e-02</internalNodes>
      <leafValues>
        6.0375224798917770e-02 -4.7345069050788879e-01</leafValues></_>
    <_>
      <internalNodes>
        0 -1 56068 1.2449917197227478e-01</internalNodes>
      <leafValues>
        -5.5578071624040604e-02 5.5730545520782471e-01</leafValues></_>
    <_>
      <internalNodes>
        0 -1 76127 3.9793543517589569e-02</internalNodes>
      <leafValues>
        -1.8134605884552002e-01 2.1735846996307373e-01</leafValues></_>
    <_>
      <internalNodes>
        0 -1 60597 -7.2233652463182807e-04</internalNodes>
      <leafValues>
        -3.2921224832534790e-01 7.4959136545658112e-02</leafValues></_>
    <_>
      <internalNodes>
        0 -1 60679 4.1302319732494652e-04</internalNodes>
      <leafValues>
        1.6463752090930939e-01 -1.8321095407009125e-01</leafValues></_>
    <_>
      <internalNodes>
        0 -1 101434 9.8023533821105957e-02</internalNodes>
      <leafValues>
        3.5843100398778915e-02 -4.1740444302558899e-01</leafValues></_>
    <_>
      <internalNodes>
        0 -1 67184 1.1072795093059540e-01</internalNodes>
      <leafValues>
        -1.0269104689359665e-01 2.0296843349933624e-01</leafValues></_>
    <_>
      <internalNodes>
        0 -1 60365 -3.6224807263351977e-04</internalNodes>
      <leafValues>
        -2.1053853631019592e-01 8.4099397063255310e-02</leafValues></_>
    <_>
      <internalNodes>
        0 -1 60403 1.3880683109164238e-03</internalNodes>
      <leafValues>
        9.1084524989128113e-02 -2.9231587052345276e-01</leafValues></_>
    <_>
      <internalNodes>
        0 -1 108012 -6.0121249407529831e-04</internalNodes>
      <leafValues>
        -4.3795627355575562e-01 3.6724254488945007e-02</leafValues></_>
    <_>
      <internalNodes>
        0 -1 172 1.3352017849683762e-02</internalNodes>
      <leafValues>
        -5.5114202201366425e-02 3.4163326025009155e-01</leafValues></_>
    <_>
      <internalNodes>
        0 -1 13393 3.1210726592689753e-04</internalNodes>
      <leafValues>
        6.3493870198726654e-02 -2.8930073976516724e-01</leafValues></_>
    <_>
      <internalNodes>
        0 -1 126391 1.4156730612739921e-03</internalNodes>
      <leafValues>
        -7.8131444752216339e-02 2.4516089260578156e-01</leafValues></_>
    <_>
      <internalNodes>
        0 -1 126471 -1.2489842483773828e-03</internalNodes>
      <leafValues>
        2.7988761663436890e-01 -8.6451001465320587e-02</leafValues></_>
    <_>
      <internalNodes>
        0 -1 104913 3.0457929242402315e-03</internalNodes>
      <leafValues>
        7.3641955852508545e-02 -2.7382007241249084e-01</leafValues></_>
    <_>
      <internalNodes>
        0 -1 139801 1.7123306170105934e-02</internalNodes>
      <leafValues>
        -7.2529070079326630e-02 2.3170846700668335e-01</leafValues></_>
    <_>
      <internalNodes>
        0 -1 63265 2.7917884290218353e-02</internalNodes>
      <leafValues>
        -6.1970882117748260e-02 3.1113961338996887e-01</leafValues></_>
    <_>
      <internalNodes>
        0 -1 38159 -2.4336555972695351e-02</internalNodes>
      <leafValues>
        3.7892371416091919e-01 -4.3999355286359787e-02</leafValues></_>
    <_>
      <internalNodes>
        0 -1 98365 6.8734856322407722e-03</internalNodes>
      <leafValues>
        6.0011286288499832e-02 -3.2115292549133301e-01</leafValues></_>
    <_>
      <internalNodes>
        0 -1 151377 1.3395075220614672e-03</internalNodes>
      <leafValues>
        -5.4941065609455109e-02 3.6043167114257813e-01</leafValues></_>
    <_>
      <internalNodes>
        0 -1 105991 8.0221900716423988e-03</internalNodes>
      <leafValues>
        4.5376319438219070e-02 -3.8931369781494141e-01</leafValues></_>
    <_>
      <internalNodes>
        0 -1 147697 1.2430949136614799e-03</internalNodes>
      <leafValues>
        -4.6881217509508133e-02 3.7166130542755127e-01</leafValues></_>
    <_>
      <internalNodes>
        0 -1 155389 2.3498614318668842e-03</internalNodes>
      <leafValues>
        4.1144039481878281e-02 -4.1617518663406372e-01</leafValues></_>
    <_>
      <internalNodes>
        0 -1 101787 -1.0522043332457542e-02</internalNodes>
      <leafValues>
        2.3774352669715881e-01 -7.0410788059234619e-02</leafValues></_>
    <_>
      <internalNodes>
        0 -1 110664 1.1108810082077980e-02</internalNodes>
      <leafValues>
        -8.8134795427322388e-02 2.3304322361946106e-01</leafValues></_>
    <_>
      <internalNodes>
        0 -1 116631 -6.5003717318177223e-03</internalNodes>
      <leafValues>
        2.0060604810714722e-01 -1.1479509621858597e-01</leafValues></_>
    <_>
      <internalNodes>
        0 -1 54582 -8.6060643196105957e-02</internalNodes>
      <leafValues>
        -5.4082876443862915e-01 4.3025549501180649e-02</leafValues></_>
    <_>
      <internalNodes>
        0 -1 76515 1.1306016147136688e-01</internalNodes>
      <leafValues>
        2.8403878211975098e-02 -5.2994668483734131e-01</leafValues></_>
    <_>
      <internalNodes>
        0 -1 102411 -3.6576963961124420e-02</internalNodes>
      <leafValues>
        -2.8719559311866760e-01 6.4294211566448212e-02</leafValues></_>
    <_>
      <internalNodes>
        0 -1 129091 -2.1606292575597763e-03</internalNodes>
      <leafValues>
        1.0019442439079285e-01 -1.6495780646800995e-01</leafValues></_>
    <_>
      <internalNodes>
        0 -1 1035 3.1578296422958374e-01</internalNodes>
      <leafValues>
        2.4266274645924568e-02 -6.5255594253540039e-01</leafValues></_>
    <_>
      <internalNodes>
        0 -1 81 -4.0331634227186441e-04</internalNodes>
      <leafValues>
        -2.2597748041152954e-01 6.5270066261291504e-02</leafValues></_>
    <_>
      <internalNodes>
        0 -1 30037 -4.3465480208396912e-02</internalNodes>
      <leafValues>
        2.5009754300117493e-01 -6.4404949545860291e-02</leafValues></_>
    <_>
      <internalNodes>
        0 -1 139503 -6.4222753047943115e-02</internalNodes>
      <leafValues>
        4.6839147806167603e-01 -3.9101455360651016e-02</leafValues></_>
    <_>
      <internalNodes>
        0 -1 16511 -2.0926209166646004e-02</internalNodes>
      <leafValues>
        -6.5303200483322144e-01 2.9674844816327095e-02</leafValues></_>
    <_>
      <internalNodes>
        0 -1 69774 -1.3953740708529949e-03</internalNodes>
      <leafValues>
        1.6177012026309967e-01 -9.6159622073173523e-02</leafValues></_>
    <_>
      <internalNodes>
        0 -1 113635 1.4492889167740941e-03</internalNodes>
      <leafValues>
        -6.9091916084289551e-02 2.2347795963287354e-01</leafValues></_>
    <_>
      <internalNodes>
        0 -1 138772 -8.1846688408404589e-04</internalNodes>
      <leafValues>
        -2.0433792471885681e-01 7.9167179763317108e-02</leafValues></_>
    <_>
      <internalNodes>
        0 -1 25640 -2.5016542524099350e-02</internalNodes>
      <leafValues>
        3.0333301424980164e-01 -5.1767501980066299e-02</leafValues></_>
    <_>
      <internalNodes>
        0 -1 161878 5.0435255980119109e-04</internalNodes>
      <leafValues>
        7.3861584067344666e-02 -2.0479020476341248e-01</leafValues></_>
    <_>
      <internalNodes>
        0 -1 161878 -1.1966409510932863e-04</internalNodes>
      <leafValues>
        -1.5240944921970367e-01 1.3114619255065918e-01</leafValues></_>
    <_>
      <internalNodes>
        0 -1 154307 1.2700603343546391e-02</internalNodes>
      <leafValues>
        -5.8848813176155090e-02 2.8377875685691833e-01</leafValues></_>
    <_>
      <internalNodes>
        0 -1 145912 8.3019323647022247e-03</internalNodes>
      <leafValues>
        -8.1256955862045288e-02 1.8431386351585388e-01</leafValues></_>
    <_>
      <internalNodes>
        0 -1 131781 -1.6626294702291489e-02</internalNodes>
      <leafValues>
        3.4183043241500854e-01 -6.8941667675971985e-02</leafValues></_>
    <_>
      <internalNodes>
        0 -1 134099 -1.4245681464672089e-02</internalNodes>
      <leafValues>
        9.8496258258819580e-02 -1.7218905687332153e-01</leafValues></_>
    <_>
      <internalNodes>
        0 -1 75417 1.3512277603149414e-01</internalNodes>
      <leafValues>
        3.1195385381579399e-02 -5.0538837909698486e-01</leafValues></_>
    <_>
      <internalNodes>
        0 -1 157682 -8.4407709073275328e-04</internalNodes>
      <leafValues>
        -2.8434529900550842e-01 5.6404102593660355e-02</leafValues></_>
    <_>
      <internalNodes>
        0 -1 98563 1.2263451702892780e-02</internalNodes>
      <leafValues>
        1.9315980374813080e-02 -6.5971320867538452e-01</leafValues></_>
    <_>
      <internalNodes>
        0 -1 51242 -2.0094388164579868e-03</internalNodes>
      <leafValues>
        1.5238606929779053e-01 -1.0143642127513885e-01</leafValues></_>
    <_>
      <internalNodes>
        0 -1 13586 3.6198940128087997e-02</internalNodes>
      <leafValues>
        -5.2158873528242111e-02 3.3748173713684082e-01</leafValues></_>
    <_>
      <internalNodes>
        0 -1 23037 -5.3749005310237408e-03</internalNodes>
      <leafValues>
        2.3183743655681610e-01 -6.0881063342094421e-02</leafValues></_>
    <_>
      <internalNodes>
        0 -1 44041 3.4275550395250320e-02</internalNodes>
      <leafValues>
        -7.0084713399410248e-02 2.1607905626296997e-01</leafValues></_>
    <_>
      <internalNodes>
        0 -1 10978 -3.3270604908466339e-02</internalNodes>
      <leafValues>
        -3.4062677621841431e-01 4.8121459782123566e-02</leafValues></_>
    <_>
      <internalNodes>
        0 -1 133733 -1.2334853410720825e-02</internalNodes>
      <leafValues>
        3.0276468396186829e-01 -5.6583847850561142e-02</leafValues></_>
    <_>
      <internalNodes>
        0 -1 35 -3.3882050774991512e-04</internalNodes>
      <leafValues>
        -1.5672583878040314e-01 9.2939399182796478e-02</leafValues></_>
    <_>
      <internalNodes>
        0 -1 12538 2.1497919806279242e-04</internalNodes>
      <leafValues>
        1.0438306629657745e-01 -1.6564708948135376e-01</leafValues></_>
    <_>
      <internalNodes>
        0 -1 67432 -1.6178493387997150e-03</internalNodes>
      <leafValues>
        1.8936300277709961e-01 -8.2905337214469910e-02</leafValues></_>
    <_>
      <internalNodes>
        0 -1 93942 -7.3644429445266724e-02</internalNodes>
      <leafValues>
        -6.1902827024459839e-01 2.4007814005017281e-02</leafValues></_>
    <_>
      <internalNodes>
        0 -1 110206 1.1073417961597443e-02</internalNodes>
      <leafValues>
        -6.1696045100688934e-02 2.3669394850730896e-01</leafValues></_>
    <_>
      <internalNodes>
        0 -1 102353 -1.6563663259148598e-02</internalNodes>
      <leafValues>
        2.2383818030357361e-01 -8.0062694847583771e-02</leafValues></_>
    <_>
      <internalNodes>
        0 -1 75621 -1.9434817135334015e-02</internalNodes>
      <leafValues>
        -4.4681853055953979e-01 3.4858658909797668e-02</leafValues></_>
    <_>
      <internalNodes>
        0 -1 95 -2.1633330732584000e-02</internalNodes>
      <leafValues>
        5.6256818771362305e-01 -2.9885470867156982e-02</leafValues></_>
    <_>
      <internalNodes>
        0 -1 64548 4.5507811009883881e-02</internalNodes>
      <leafValues>
        4.4159248471260071e-02 -3.4022071957588196e-01</leafValues></_>
    <_>
      <internalNodes>
        0 -1 87179 -1.8162615597248077e-03</internalNodes>
      <leafValues>
        -2.3680061101913452e-01 6.5090581774711609e-02</leafValues></_>
    <_>
      <internalNodes>
        0 -1 162078 -1.9781914306804538e-04</internalNodes>
      <leafValues>
        -1.7024286091327667e-01 8.5290201008319855e-02</leafValues></_>
    <_>
      <internalNodes>
        0 -1 116046 3.2799909822642803e-03</internalNodes>
      <leafValues>
        2.6529451832175255e-02 -5.4918229579925537e-01</leafValues></_>
    <_>
      <internalNodes>
        0 -1 83633 -5.3704883903264999e-03</internalNodes>
      <leafValues>
        1.7079260945320129e-01 -9.8267853260040283e-02</leafValues></_>
    <_>
      <internalNodes>
        0 -1 12538 -1.0937525075860322e-04</internalNodes>
      <leafValues>
        -1.4497849345207214e-01 9.7072601318359375e-02</leafValues></_>
    <_>
      <internalNodes>
        0 -1 87657 -1.1322861537337303e-03</internalNodes>
      <leafValues>
        2.0316408574581146e-01 -7.0884577929973602e-02</leafValues></_>
    <_>
      <internalNodes>
        0 -1 9430 -7.9972565174102783e-02</internalNodes>
      <leafValues>
        -5.3316116333007813e-01 3.0060375109314919e-02</leafValues></_>
    <_>
      <internalNodes>
        0 -1 104481 -6.9888355210423470e-04</internalNodes>
      <leafValues>
        2.0112685859203339e-01 -7.7531576156616211e-02</leafValues></_>
    <_>
      <internalNodes>
        0 -1 162014 5.9237296227365732e-04</internalNodes>
      <leafValues>
        8.3832055330276489e-02 -1.6677765548229218e-01</leafValues></_>
    <_>
      <internalNodes>
        0 -1 127229 -2.6223179884254932e-03</internalNodes>
      <leafValues>
        1.5426720678806305e-01 -8.6816899478435516e-02</leafValues></_>
    <_>
      <internalNodes>
        0 -1 72349 4.6642832458019257e-03</internalNodes>
      <leafValues>
        3.9492812007665634e-02 -3.4562331438064575e-01</leafValues></_>
    <_>
      <internalNodes>
        0 -1 30624 1.4495721086859703e-02</internalNodes>
      <leafValues>
        -1.4060792326927185e-01 9.7967304289340973e-02</leafValues></_>
    <_>
      <internalNodes>
        0 -1 6307 -2.3238216340541840e-01</internalNodes>
      <leafValues>
        3.8077139854431152e-01 -3.8103383034467697e-02</leafValues></_>
    <_>
      <internalNodes>
        0 -1 105201 1.8965695053339005e-02</internalNodes>
      <leafValues>
        4.2520336806774139e-02 -3.5246339440345764e-01</leafValues></_>
    <_>
      <internalNodes>
        0 -1 126790 -1.2522100005298853e-03</internalNodes>
      <leafValues>
        2.0271459221839905e-01 -7.2532407939434052e-02</leafValues></_>
    <_>
      <internalNodes>
        0 -1 139317 7.8348757233470678e-04</internalNodes>
      <leafValues>
        8.2510650157928467e-02 -1.7662161588668823e-01</leafValues></_>
    <_>
      <internalNodes>
        0 -1 62772 1.1111371219158173e-02</internalNodes>
      <leafValues>
        -1.2911330163478851e-01 1.1960688978433609e-01</leafValues></_>
    <_>
      <internalNodes>
        0 -1 158923 -4.8463884741067886e-03</internalNodes>
      <leafValues>
        2.6638835668563843e-01 -5.3103651851415634e-02</leafValues></_>
    <_>
      <internalNodes>
        0 -1 76728 -2.8966564685106277e-02</internalNodes>
      <leafValues>
        -6.6690313816070557e-01 2.1315488964319229e-02</leafValues></_>
    <_>
      <internalNodes>
        0 -1 133757 -1.2036533735226840e-04</internalNodes>
      <leafValues>
        -2.3252117633819580e-01 5.8942388743162155e-02</leafValues></_>
    <_>
      <internalNodes>
        0 -1 145182 1.1557666584849358e-02</internalNodes>
      <leafValues>
        -6.0964222997426987e-02 2.3368862271308899e-01</leafValues></_>
    <_>
      <internalNodes>
        0 -1 136695 9.2528881505131721e-03</internalNodes>
      <leafValues>
        -1.2012787908315659e-01 1.4093077182769775e-01</leafValues></_>
    <_>
      <internalNodes>
        0 -1 74345 -9.7264327108860016e-02</internalNodes>
      <leafValues>
        -6.7500364780426025e-01 1.9711229950189590e-02</leafValues></_></weakClassifiers></stage10>
</opencv_storage>
